{"w1": [[-0.03549632648862333, -0.03686317145114408, -0.021622826660896162, 0.15419563928397498, -0.030321160503619424, -0.3192368205750113, 0.0681868904045474, -0.06252740928176823, -0.043269856038148646, 0.02470671953933942, 0.04841604483884871, 0.2659290783440032, 0.1410118880374866, 0.025092752656101603, -0.15498426202688606, -0.21937941681389972, 0.05120432499204954, 0.2838350760080834, 0.008881273225329616, -0.01796928548737087, 0.12303250490907304, -0.31020386785822845, -0.0665777477168283, 0.10507001845504023, 0.18495279096348638, -0.052741779007831294, 0.07962641082498984, 0.06004638087144747, 0.17241975774001686, -0.23733977354068928, 0.1202192371408476, -0.32038965830097926], [-0.5601662958305588, -0.12938953800171202, -0.19428753587942946, 0.18827717316355014, 0.13777947009584313, -0.2599076081352727, 0.17977018960030341, -0.21931042974879264, -0.014207002642510357, -0.0626596431970875, 0.02284039686754344, 0.19953439403082776, 0.13753339769212036, 0.07510660211488433, 0.14196640553766188, 0.10099728746198139, -0.1341777840437007, -0.14875457790636404, -0.10019757271020804, 0.11303522995070593, -0.047036756609506875, 0.4975547167690664, -0.1746737568989696, -0.23410606014007518, 0.1620783944638929, 0.3011243299827619, 0.10688311558535443, 0.1856060282477275, 0.3096705894421513, -0.020046725243785972, -0.3046809670205399, -0.1126033765409033], [0.20315805807211604, -0.30779327036301696, 0.007148901612193891, 0.05399038641973073, -0.06728447561449245, 0.15427885787151152, 0.12382265693829021, 0.49492595875725104, 0.1321775722066212, -0.12992525393228746, -0.11977564913247253, -0.1772936864925832, 0.20302540511924022, -0.12084916643616245, -0.014979647284666853, 0.15975185519969398, -0.1542428278636522, -0.06260808820682738, -0.39256355084250166, -0.2307852170186856, -0.1210418097804665, 0.0886405405844711, 0.2544536206505127, -0.003937137795308537, 0.05572305155516575, 0.03581118970006943, 0.23126758244869083, 0.19046396833099438, 0.05835161090663005, -0.2155340496901641, 0.1926023961634059, 0.08123952064541431], [0.26158481732553457, -0.006376106983390166, 0.416402516214761, -0.07651269283969242, 0.3396416215186463, 0.024543447425983935, -0.11006892260334245, -0.24058589484930348, -0.0321998217796629, 0.3034530623828462, 0.17405162749271094, 0.14687053334733297, -0.5065377345526908, 0.15157807771752901, 0.1185081321961034, -0.1172446777779949, -0.1337587962999711, -0.0004925899817606022, 0.36774485492809805, -0.22494822494414518, -0.09120833986631274, 0.29033348429689065, -0.09511967004062467, -0.07765867558714078, 0.02084598728458082, -0.26464378430333946, 0.04689252326712562, -0.257891338191131, 0.1887249138851324, 0.0006781536906036016, 0.4868292244808827, 0.05987539866649411], [0.29116597767959057, -0.2778568123706, -0.026040195534065703, 0.06889488492300902, 0.3721889503536817, -0.35837248211963235, 0.21120082537120644, 0.12607709936531894, 0.3269531474957905, 0.15188110277574587, 0.011101613965647367, -0.11121607915580534, -0.2661128099846116, 0.04166427346950734, -0.04086988847285629, 0.43072244370842183, -0.1302709310374331, 0.06830777091222588, -0.3345122266378353, -0.08431290499097797, 0.05567691511017138, 0.17566886491753625, 0.3087363169875189, -0.009412422819194022, -0.2381974085604183, 0.09761403315529872, 0.11022201972842921, 0.10482191089533142, -0.14930183911907532, 0.24163836547179648, 0.0187394711695715, 0.14920311067314224], [0.2716333274776499, 0.12989729520028462, 0.06108542241307761, 0.45897748629037655, 0.051957662913303095, -0.06309978644264638, 0.023871452620917537, 0.3161273423004518, 0.025309587244621817, 0.11073168813477721, 0.25493079964774307, -0.10934182308950285, -0.36810591164281825, 0.0638372305460002, 0.048979622764319164, -0.12962820562066826, 0.1857162404458595, 0.12953380000740952, -0.21213309705339917, 0.11048454349401024, -0.041809717718916596, -0.31618204998166505, 0.0965693141631052, -0.00963979079779764, -0.15889484799486597, 0.11149237374139184, 0.10406183527976917, -0.12313134133892631, 0.08535537381653106, 0.21641257154369106, -0.1519410372509345, 0.08120602669472764], [0.0005875279767119903, 0.4831150214999679, -0.39704432744109097, 0.14823503224640294, -0.06529165759769326, -0.021362189187596574, 0.4054201319788451, -0.0018278019902263072, 0.4777708029575459, -0.09426626296134383, 0.0747294183066843, -0.10464903897844857, -0.14725517906836577, 0.013321447319604775, -0.060244451626126155, 0.04317135076188862, -0.4487934493473149, 0.42692754569053004, -0.03560386058134118, 0.37158870246922515, -0.21471702673632306, 0.06236882180680739, 0.6747679232589031, -0.18542688487364076, -0.31879898279306396, -0.11651622442894358, 0.10073487117491532, 0.147820593219096, 0.2751071022475846, -0.05479522744972834, -0.34160100970678525, -0.09274866595012941], [0.2644163669722203, 0.09927961123617349, -0.41722075090602895, -0.007473007401261976, 0.29809043865543466, 0.45338158616252155, 0.11975199375628957, 0.06594347465930095, -0.2644127368428458, -0.17977998479163587, 0.010002494428752291, 0.1072821188099692, 0.12369568516493426, -0.10195440652197925, -0.24559490830017172, -0.16582364569088703, -0.24666776966127957, 0.13717529867506123, -0.492979988224478, -0.07105511380552752, 0.09591438267684543, 0.3244942032009197, 0.01520114179678944, 0.21347445317977595, -0.08506795393253427, -0.15870746318661394, -0.14378107890010447, 0.325629082817027, 0.21196866009489385, 0.10391358707206873, 0.7100157073681544, -0.006895203790498714], [0.1322589899902934, 0.065578739350409, -0.0473061880835299, 0.49380939054722717, 0.321209223272316, -0.29837006062619015, -0.0852475223433642, 0.09132165682140127, 0.16697522248465466, -0.2874898812518364, -0.48088734613724593, -0.4064388033766856, -0.015161014925443634, -0.022002991701435548, 0.07360101828745137, -0.1640952140046606, -0.2610083494927002, -0.4313146554955945, 0.07018298070016485, 0.07889576903982329, 0.21170696185642454, 0.1685982071681002, -0.04066069847593252, 0.2876634038097037, -0.029073523224662487, -0.14089079095686596, -0.11098769703160925, -0.12468226158429263, -0.46173662003512256, 0.03332882648161058, 0.05327578717063938, -0.07723533039120943], [-0.15219151278676568, 0.07926884169630045, 0.36603803915504546, 0.008156025918355141, -0.10822784870329198, -0.12609696724309052, -0.014872122582964414, -0.2696489257679482, -0.026705668455027334, 0.013044102584859968, 0.39328681767767915, 0.20114928237169577, 0.22045577377319867, -0.15200113968704534, 0.14282775292002306, -0.24291715977707035, 0.06651024400928877, 0.08927508388608649, -0.16339903652615387, 0.42626920672737045, 0.12096447133974789, -0.4056630372072042, 0.11787012386650793, -0.08686049163909194, 0.00029341019789549066, 0.09930138707612496, 0.08326184443108807, -0.4347485270924851, -0.24695459910726322, 0.1647240240817537, 0.27741767806064904, 0.405753558770693], [0.38443676019052636, -0.43824187660239744, 0.1645426840155689, -0.4085544436229769, 0.33876568145323493, 0.05401427416992685, -0.24329800307936847, 0.42139398315949206, 0.143266832540515, -0.4031942978595707, 0.06034761471523417, -0.12016448639188838, 0.02576130486232602, -0.09917982506797555, 0.29768274545023216, -0.3034456775399275, 0.06754845071869059, 0.39194666326762384, -0.17630852813811163, 0.05430828245466985, 0.04882111525416218, -0.14765893887584522, 0.1381313844957835, 0.020691189604383767, -0.2037272074279956, 0.3727843749518767, 0.16744298669740146, -0.02618955890593227, -0.1288074329147602, -0.16722667293784926, 0.26057306409753195, -0.031229264534550123], [0.08203200417612427, -0.03932630076696633, 0.13763734874187558, -0.009619479548747287, 0.16121528576779065, -0.039060697218113116, 0.1679898773291843, 0.13678044686150545, -0.02486129303504865, -0.1833051235651983, -0.20043425544416907, -0.1579256206849892, -0.20989347079156812, 0.18969689477162113, -0.009935646411045902, 0.3245710758143117, 0.4817723246414987, 0.010935913931896845, -0.330038376470415, -0.08132616618076546, 0.006536741635254114, -0.317336974240602, -0.05340534616327518, 0.06292507610514604, -0.09795034592299576, -0.16382895723124202, -0.16176748467845253, 0.388949634297201, -0.026833058998373557, -0.17694169497562987, -0.07950220402405507, 0.21182400937141]], "b1": [-0.01592055000897664, 0.0, 0.006706952817516002, 0.015107354076391619, -0.00689405681918104, 0.0, -0.00887872869599922, -0.013690665482125275, 0.005971781682355162, 0.0, -0.0022199981549025677, 0.0357150656785455, 0.002033028805529462, 0.005108477542133588, 0.004852864987703668, -0.01017557735479602, -0.004304985965563501, 0.010932075195105702, 0.0, 0.009397833819696689, 0.028355298796697945, -0.0006139381348978193, 0.0, 0.001747917440497887, -0.002515299335086673, -0.0028787208426807377, -0.0013298976533886037, 0.017465144564528908, 0.014135683274187134, 0.0, -0.0018644330438497207, 0.008357247166667634], "w2": [[-0.1594379891083425, 0.11158902153228693, 0.16881863728835286, 0.17386204296590377, 0.3250187025803044], [-0.12798446060751126, 0.26335504111237057, -0.18433471769521748, -0.09219364873784897, 0.2780846192000748], [0.18862104338744415, -0.0032801591842477646, -0.28071566020424515, 0.127647418237733, -0.1501300807526224], [-0.21577397135926293, -0.15238029641007997, 0.055726458981520045, -0.4942935587050672, 0.08232168266636244], [0.025215199665788092, -0.14738023429888308, 0.22622813011608603, 0.1270369995697667, -0.15385091979809415], [-0.15577570039996108, 0.16161943518346242, -0.352479942888112, -0.07733314410429461, -0.14671533751283544], [0.012545575186799154, 0.04265575361466984, 0.002536052640764172, 0.2594151162994725, 0.04711430228361792], [-0.08180753389430538, -0.28801336695668245, 0.1594376053746303, 0.11426432505064904, 0.33001605103778686], [-0.17697211174986438, 0.0044804081338580245, -0.01626503183984043, -0.02338401844640926, 0.0002827800689703932], [-0.39862233455650314, 0.19180524065658164, 0.15186728031188051, 0.2628297270250649, 0.5230154165671828], [-0.07711989049318534, -0.009945738973800964, -0.00015894586445581912, 0.44874971242555073, -0.404480267535286], [0.10888115144801068, -0.34407015839672506, -0.6035205388972527, -0.473657534785634, -0.3239544215585357], [0.24294370526531808, -0.2048042170678342, -0.05748043473153993, -0.27580212992353786, 0.1382972325546032], [-0.2598559283411911, 0.2999981603239405, -0.23683310610836883, -0.1821931461456357, 0.022702152272967055], [-0.0035312260953742672, 0.3264024608967651, 0.020378255169719278, -0.2895802982703516, -0.1364766990903709], [-0.13798822383634257, 0.1601963961757009, 0.08139567320566433, -0.03352744698695043, 0.19448538808789143], [-0.13152391035987598, -0.046703843776308256, 0.027962672331929714, 0.3449379217038908, -0.03671995883707986], [-0.09557944525767169, -0.25224435261017264, 0.14680713215449825, -0.1502412208791346, 0.06916225620858053], [-0.44211531913939406, 0.2425360414611819, -0.3096692409647764, -0.18072842852236326, 0.24611511469074376], [-0.3137817194955495, -0.020306188163226335, 0.014374673037070127, -0.23548656966204323, 0.3098710665943456], [0.345295747870067, -0.46089495149942056, -0.34004084073106833, 0.18475214925205688, -0.3057106345917909], [-0.0916908020346053, 0.029425544333594355, 0.1597553651947592, -0.05316638415277919, 0.021245838439135994], [-0.18058673515318296, 0.3004679684422561, -0.11515813260385266, 0.07898629196865958, -0.11895343891341348], [0.023450794385759213, -0.041300605597507804, -0.03983371552433305, -0.23721663949311278, 0.1831375133407924], [0.3287469983044498, 0.056524067836971746, 0.1702549138712966, 0.19483601935404213, 0.21574514222887053], [0.054228959768971435, 0.040861143894935135, 0.18748982127234162, 0.0005992109521929992, -0.23733370705785026], [-0.0027026295097290526, -0.44333980073264173, -0.008145170731198949, 0.08831327369285924, 0.28184041034822294], [0.023626562195546003, 0.2004542465487338, -0.01576253059609069, -0.25078691817953125, -0.3429605685784472], [-0.23157555610409544, -0.32206471238614215, 0.14148189016213794, -0.054306385230767536, 0.12754688917997303], [0.017072460654984856, 0.24273658861101527, 0.24648981710809406, -0.1500380391914688, -0.06377716545921935], [-0.1270341055669736, -0.37858780680872317, 0.1543929791584808, 0.2734081825494464, -0.0036054794329048842], [-0.11652304780694708, 0.25040247035697694, -0.548212180557215, 0.039038742973492094, 0.030347275454119655]], "b2": [-0.04710480706880097, -0.04629344596863832, -0.05307200067204116, -0.049020247834718984, -0.04810172721872661], "backend_names": ["exhausted", "github_gpt4o", "groq_gptoss", "longcat_lite", "scnet_ds_flash"], "created_at": 1780022070.0980842, "updated_at": 1780023706.6382525, "n_updates": 120, "hidden_size": 32, "n_features": 12, "n_backends": 5}