{"w1": [[-0.03551955275629675, -0.03686317145114408, -0.01651594463068049, 0.1673027182517353, -0.03208367339729454, -0.3192368205750113, 0.06249854381118543, -0.07109881927119739, -0.03747563961372862, 0.02470671953933942, 0.05065609896116201, 0.3222747461559294, 0.14209066671541065, 0.030728098147092455, -0.14911989595570488, -0.2234911128936968, 0.04953578470994946, 0.2967008930782234, 0.008881273225329616, -0.011690592846528682, 0.14405740195067535, -0.3108516094236105, -0.0665777477168283, 0.1082281254667969, 0.18487365470421352, -0.05152726011813218, 0.07781211907081152, 0.07893851201319962, 0.186521156805198, -0.23733977354068928, 0.11970737435038209, -0.31400746014062914], [-0.5601740379197834, -0.12938953800171202, -0.1900047627779637, 0.19264619948613693, 0.13610557968693493, -0.2599076081352727, 0.17787407406918296, -0.22989269661272294, -0.0060950996483223815, -0.0626596431970875, 0.025976472638782003, 0.2552683953971414, 0.13904368784121388, 0.07698505061188128, 0.1501765180373154, 0.09962672210204908, -0.13472336194209816, -0.1379094014787033, -0.10019757271020804, 0.12182539964788501, -0.030665996779680783, 0.496647878577531, -0.1746737568989696, -0.233053357802823, 0.16196760370091093, 0.30282465642834044, 0.10434310712950483, 0.20586805138419187, 0.32132134421841746, -0.020046725243785972, -0.3053975749271915, -0.11047597715412007], [0.20315805807211604, -0.30779327036301696, 0.007148901612193891, 0.05399038641973073, -0.06728447561449245, 0.15427885787151152, 0.12382265693829021, 0.49492595875725104, 0.1321775722066212, -0.12992525393228746, -0.11977564913247253, -0.1772936864925832, 0.20302540511924022, -0.12084916643616245, -0.014979647284666853, 0.15975185519969398, -0.1542428278636522, -0.06260808820682738, -0.39256355084250166, -0.2307852170186856, -0.1210418097804665, 0.0886405405844711, 0.2544536206505127, -0.003937137795308537, 0.05572305155516575, 0.03581118970006943, 0.23126758244869083, 0.19046396833099438, 0.05835161090663005, -0.2155340496901641, 0.1926023961634059, 0.08123952064541431], [0.26158481732553457, -0.006376106983390166, 0.416402516214761, -0.07651269283969242, 0.3396416215186463, 0.024543447425983935, -0.11006892260334245, -0.24058589484930348, -0.0321998217796629, 0.3034530623828462, 0.17405162749271094, 0.14687053334733297, -0.5065377345526908, 0.15157807771752901, 0.1185081321961034, -0.1172446777779949, -0.1337587962999711, -0.0004925899817606022, 0.36774485492809805, -0.22494822494414518, -0.09120833986631274, 0.29033348429689065, -0.09511967004062467, -0.07765867558714078, 0.02084598728458082, -0.26464378430333946, 0.04689252326712562, -0.257891338191131, 0.1887249138851324, 0.0006781536906036016, 0.4868292244808827, 0.05987539866649411], [0.29116597767959057, -0.2778568123706, -0.026040195534065703, 0.06889488492300902, 0.3721889503536817, -0.35837248211963235, 0.21120082537120644, 0.12607709936531894, 0.3269531474957905, 0.15188110277574587, 0.011101613965647367, -0.11121607915580534, -0.2661128099846116, 0.04166427346950734, -0.04086988847285629, 0.43072244370842183, -0.1302709310374331, 0.06830777091222588, -0.3345122266378353, -0.08431290499097797, 0.05567691511017138, 0.17566886491753625, 0.3087363169875189, -0.009412422819194022, -0.2381974085604183, 0.09761403315529872, 0.11022201972842921, 0.10482191089533142, -0.14930183911907532, 0.24163836547179648, 0.0187394711695715, 0.14920311067314224], [0.2716333274776499, 0.12989729520028462, 0.06108542241307761, 0.45897748629037655, 0.051957662913303095, -0.06309978644264638, 0.023871452620917537, 0.3161273423004518, 0.025309587244621817, 0.11073168813477721, 0.25493079964774307, -0.10934182308950285, -0.36810591164281825, 0.0638372305460002, 0.048979622764319164, -0.12962820562066826, 0.1857162404458595, 0.12953380000740952, -0.21213309705339917, 0.11048454349401024, -0.041809717718916596, -0.31618204998166505, 0.0965693141631052, -0.00963979079779764, -0.15889484799486597, 0.11149237374139184, 0.10406183527976917, -0.12313134133892631, 0.08535537381653106, 0.21641257154369106, -0.1519410372509345, 0.08120602669472764], [0.0005875279767119903, 0.4831150214999679, -0.39704432744109097, 0.14823503224640294, -0.06529165759769326, -0.021362189187596574, 0.4054201319788451, -0.0018278019902263072, 0.4777708029575459, -0.09426626296134383, 0.0747294183066843, -0.10464903897844857, -0.14725517906836577, 0.013321447319604775, -0.060244451626126155, 0.04317135076188862, -0.4487934493473149, 0.42692754569053004, -0.03560386058134118, 0.37158870246922515, -0.21471702673632306, 0.06236882180680739, 0.6747679232589031, -0.18542688487364076, -0.31879898279306396, -0.11651622442894358, 0.10073487117491532, 0.147820593219096, 0.2751071022475846, -0.05479522744972834, -0.34160100970678525, -0.09274866595012941], [0.2644163669722203, 0.09927961123617349, -0.41722075090602895, -0.007473007401261976, 0.29809043865543466, 0.45338158616252155, 0.11975199375628957, 0.06594347465930095, -0.2644127368428458, -0.17977998479163587, 0.010002494428752291, 0.1072821188099692, 0.12369568516493426, -0.10195440652197925, -0.24559490830017172, -0.16582364569088703, -0.24666776966127957, 0.13717529867506123, -0.492979988224478, -0.07105511380552752, 0.09591438267684543, 0.3244942032009197, 0.01520114179678944, 0.21347445317977595, -0.08506795393253427, -0.15870746318661394, -0.14378107890010447, 0.325629082817027, 0.21196866009489385, 0.10391358707206873, 0.7100157073681544, -0.006895203790498714], [0.1322589899902934, 0.065578739350409, -0.0473061880835299, 0.49380939054722717, 0.321209223272316, -0.29837006062619015, -0.0852475223433642, 0.09132165682140127, 0.16697522248465466, -0.2874898812518364, -0.48088734613724593, -0.4064388033766856, -0.015161014925443634, -0.022002991701435548, 0.07360101828745137, -0.1640952140046606, -0.2610083494927002, -0.4313146554955945, 0.07018298070016485, 0.07889576903982329, 0.21170696185642454, 0.1685982071681002, -0.04066069847593252, 0.2876634038097037, -0.029073523224662487, -0.14089079095686596, -0.11098769703160925, -0.12468226158429263, -0.46173662003512256, 0.03332882648161058, 0.05327578717063938, -0.07723533039120943], [-0.15219151278676568, 0.07926884169630045, 0.36603803915504546, 0.008156025918355141, -0.10822784870329198, -0.12609696724309052, -0.014872122582964414, -0.2696489257679482, -0.026705668455027334, 0.013044102584859968, 0.39328681767767915, 0.20114928237169577, 0.22045577377319867, -0.15200113968704534, 0.14282775292002306, -0.24291715977707035, 0.06651024400928877, 0.08927508388608649, -0.16339903652615387, 0.42626920672737045, 0.12096447133974789, -0.4056630372072042, 0.11787012386650793, -0.08686049163909194, 0.00029341019789549066, 0.09930138707612496, 0.08326184443108807, -0.4347485270924851, -0.24695459910726322, 0.1647240240817537, 0.27741767806064904, 0.405753558770693], [0.38443676019052636, -0.43824187660239744, 0.1693810823119323, -0.4085544436229769, 0.33672870749507866, 0.05401427416992685, -0.24329800307936847, 0.40690936403301664, 0.15485526538935507, -0.4031942978595707, 0.06482772295986072, -0.05087927621250413, 0.027918862218173936, -0.09917982506797555, 0.3094114775925945, -0.3034456775399275, 0.06756832983550759, 0.4042402334006501, -0.17630852813811163, 0.06686566773635422, 0.06637572928408488, -0.14895442200660985, 0.1381313844957835, 0.020691189604383767, -0.20388547994654127, 0.3752134127312747, 0.16381440318904483, -5.847488656433961e-06, -0.11577564212500033, -0.16722667293784926, 0.2595493385166006, -0.031229264534550123], [0.08195458328387961, -0.03932630076696633, 0.14659629168198868, 0.034070783677121144, 0.15873519938580014, -0.039060697218113116, 0.1490287220179778, 0.1323501121075343, -0.02486129303504865, -0.1833051235651983, -0.20043425544416907, -0.08558207827754255, -0.20989347079156812, 0.2084813797415907, -0.009935646411045902, 0.3108654222149882, 0.47617739183980384, 0.03333268727731802, -0.330038376470415, -0.08132616618076546, 0.04736204172405628, -0.317336974240602, -0.05340534616327518, 0.07345209947766787, -0.09795034592299576, -0.16382895723124202, -0.16176748467845253, 0.40828388574091545, -0.0015480467640354909, -0.17694169497562987, -0.07950220402405507, 0.23309800323924398]], "b1": [-0.01599797090122134, 0.0, 0.020504294053992577, 0.058797617302260054, -0.011411117159327293, 0.0, -0.02783988400720558, -0.032605619362572134, 0.01756021453119512, 0.0, 0.0022601100897239232, 0.17734381826537668, 0.0041905861613773686, 0.02389296251210311, 0.016581597130066097, -0.02388123095411939, -0.009880039650441734, 0.04562241867355327, 0.0, 0.021955219101381034, 0.08673521291542274, -0.0019094212656622692, 0.0, 0.012274940813019719, -0.0026735718536323432, -0.00044968306328261535, -0.004958481161745203, 0.06298310742551924, 0.052452486298284966, 0.0, -0.002888158624780795, 0.029631241034501554], "w2": [[-0.1595182906345208, 0.11153646271596791, 0.1687692595190738, 0.17377916436523502, 0.3250687324442473], [-0.12798446060751126, 0.26335504111237057, -0.18433471769521748, -0.09219364873784897, 0.2780846192000748], [0.17994130048779872, -0.013427721496925196, -0.2906115867485826, 0.11870039738577721, -0.1575266468852577], [-0.22183704179196856, -0.16087572543745202, 0.048008164113769854, -0.5008410060990129, 0.07677925882851452], [-0.004179386056868233, -0.16965897033930638, 0.1988848775961332, 0.09984330529044974, -0.18055520238208264], [-0.15577570039996108, 0.16161943518346242, -0.352479942888112, -0.07733314410429461, -0.14671533751283544], [0.003281693511447251, 0.03019000410108672, -0.008839211971403204, 0.24935954819602055, 0.039759219715534845], [-0.09588346884557496, -0.29861020293325746, 0.1463530961093789, 0.10123373721289068, 0.3171495421287196], [-0.18400000673512487, 0.0007609206353239384, -0.02194403804842207, -0.02945704151059999, -0.00617598272210907], [-0.39862233455650314, 0.19180524065658164, 0.15186728031188051, 0.2628297270250649, 0.5230154165671828], [-0.08288416774298, -0.01303000578419461, -0.004857711074920702, 0.4437523724693035, -0.40986130979684854], [0.08787592749323962, -0.3582776931447225, -0.6219315788470474, -0.4924254612557482, -0.34263074380452024], [0.2325627416047036, -0.21036096032759324, -0.0659432374979952, -0.28478947607108007, 0.1285620665234289], [-0.27181645163830487, 0.2836420202879043, -0.25173204198116067, -0.1951501060719556, 0.012640842797652627], [-0.021484285219274334, 0.31681609826293167, 0.005774211066580519, -0.30511733066777297, -0.15322624143000035], [-0.150869840760145, 0.1427834366841099, 0.06551113360007416, -0.04750634652232013, 0.1840876339079969], [-0.15606393386117437, -0.07999102936818941, -0.0023829379094566366, 0.3183315939311136, -0.05677810543406438], [-0.12666545025173198, -0.2740936867202697, 0.11878383413800803, -0.17847545934511547, 0.040592282379427615], [-0.44211531913939406, 0.2425360414611819, -0.3096692409647764, -0.18072842852236326, 0.24611511469074376], [-0.32151711213147355, -0.024393556519489788, 0.00813231088813554, -0.24216349261229697, 0.3027659165127033], [0.33089714758023786, -0.4735564957191002, -0.35431241017014237, 0.17108256235987787, -0.3187016309940152], [-0.09389906259017047, 0.02823504066462434, 0.15794477230838166, -0.0550788541088007, 0.019144233424087453], [-0.18058673515318296, 0.3004679684422561, -0.11515813260385266, 0.07898629196865958, -0.11895343891341348], [0.018998409018478487, -0.047411531846000124, -0.045399521323624265, -0.24203917007654766, 0.17934287524954245], [0.32874785467997986, 0.056525560928988514, 0.1702542316074554, 0.19483684587116393, 0.21574278611608178], [0.02476067161499147, 0.025049550204206173, 0.16342371024992744, -0.024926698200803985, -0.2650655217805597], [-0.01712176325978808, -0.4510885006543648, -0.019937089857769572, 0.07582333418207818, 0.26821642127208783], [-0.011547443487614465, 0.16134746767089106, -0.05481962251615292, -0.28654038371128926, -0.37307562821098017], [-0.2486118636668707, -0.33562222018884447, 0.1253161009788257, -0.07016621899446765, 0.1120702814435384], [0.017072460654984856, 0.24273658861101527, 0.24648981710809406, -0.1500380391914688, -0.06377716545921935], [-0.13254987278517372, -0.3815522650225555, 0.14987835059962296, 0.26862793908605864, -0.008818773206711296], [-0.12348851263668599, 0.24081533662799587, -0.5569376311493842, 0.031500624425282425, 0.02435433152752447]], "b2": [-0.15192090326524543, -0.14533017199915985, -0.16062699170840383, -0.15115616481227637, -0.14054246906714657], "backend_names": ["exhausted", "github_gpt4o", "groq_gptoss", "longcat_lite", "scnet_ds_flash"], "created_at": 1780037432.2134907, "updated_at": 1780046399.1582632, "n_updates": 385, "hidden_size": 32, "n_features": 12, "n_backends": 5}